svm_type c_svc
kernel_type rbf
gamma 0.0038314176245210726
nr_class 2
total_sv 72
rho -1.0137817944179741
label 1 2
nr_sv 37 35
SV
1.0 0:1.0691665 1:0.72259295 2:1.0691665 3:0.79451346 
1.0 4:0.47518513 5:0.24413607 6:0.39816877 7:0.47518513 8:0.47518513 9:0.47518513 10:0.47518513 11:0.47518513 12:0.47518513 
1.0 19:0.89587975 20:0.65976435 21:1.0691665 22:0.79451346 
0.9470651971293435 23:1.4255555 24:0.9634573 25:1.4255555 
1.0 5:0.7324082 26:1.4255555 27:1.4255555 
1.0 28:1.4255555 29:1.4255555 30:1.0593513 
1.0 37:0.71670383 38:0.85533327 39:0.71670383 40:0.85533327 41:0.85533327 
0.6206563661504241 42:2.138333 43:2.138333 
1.0 44:1.1945064 45:1.1945064 46:1.1945064 
1.0 5:0.43944493 47:0.85533327 48:0.85533327 49:0.71670383 50:0.85533327 
1.0 6:0.5119313 51:0.5119313 52:0.6109523 53:0.6109523 54:0.45400771 55:0.6109523 56:0.5119313 
1.0 13:0.48172864 16:0.26823968 62:0.5972532 63:0.71277773 64:0.71277773 65:0.5972532 
1.0 66:0.89587975 67:1.0691665 68:1.0691665 69:1.0691665 
1.0 70:0.71277773 71:0.71277773 72:0.71277773 73:0.71277773 74:0.71277773 75:0.71277773 
1.0 22:0.52967566 76:0.71277773 77:0.71277773 78:0.71277773 79:0.71277773 80:0.71277773 
1.0 16:0.53647935 81:1.4255555 82:1.0593513 
1.0 5:0.7324082 83:1.1945064 84:1.1945064 
1.0 19:1.1945064 30:1.0593513 54:1.0593513 
0.620656366150427 85:2.138333 86:2.138333 
1.0 5:0.31388924 24:0.41291028 87:0.6109523 88:0.6109523 89:0.6109523 90:0.6109523 91:0.6109523 
0.49604876349822974 92:1.7917595 93:1.7917595 
1.0 1:0.41291028 94:0.6109523 95:0.6109523 96:0.45400771 97:0.6109523 98:0.6109523 99:0.6109523 
1.0 3:0.79451346 100:1.0691665 101:1.0691665 102:1.0691665 
1.0 20:0.4398429 22:0.52967566 36:0.5972532 108:0.5972532 109:0.48172864 110:0.5972532 
0.6280461423599772 24:1.4451859 108:1.7917595 
1.0 18:0.22396994 39:0.44793987 111:0.5345833 112:0.5345833 113:0.5345833 114:0.5345833 115:0.5345833 116:0.5345833 
1.0 92:0.71670383 93:0.71670383 117:0.85533327 118:0.85533327 119:0.85533327 
1.0 3:0.63561076 120:0.85533327 121:0.85533327 122:0.85533327 123:0.85533327 
1.0 83:0.89587975 124:1.0691665 125:1.0691665 126:1.0691665 
1.0 127:0.85533327 128:0.85533327 129:0.85533327 130:0.85533327 131:0.85533327 
1.0 20:0.8796858 132:1.4255555 133:1.0593513 
1.0 16:0.16094379 18:0.17917596 134:0.42766663 135:0.42766663 136:0.42766663 137:0.42766663 138:0.42766663 139:0.42766663 140:0.42766663 141:0.35835192 
1.0 142:0.30547616 143:0.30547616 144:0.30547616 145:0.30547616 146:0.30547616 147:0.30547616 148:0.30547616 149:0.30547616 150:0.30547616 151:0.30547616 152:0.30547616 153:0.30547616 154:0.30547616 155:0.30547616 
1.0 65:0.89587975 82:0.79451346 156:1.0691665 157:1.0691665 
0.6875271647115986 1:1.4451859 158:2.138333 
1.0 60:0.39816877 159:0.47518513 160:0.47518513 161:0.47518513 162:0.47518513 163:0.47518513 164:0.47518513 165:0.39816877 166:0.47518513 
1.0 141:0.5972532 167:0.71277773 168:0.71277773 169:0.71277773 170:0.5972532 171:0.71277773 
-1.0 13:0.48172864 14:0.71277773 15:0.41415113 16:0.26823968 17:0.71277773 18:0.2986266 
-1.0 31:0.52967566 32:0.71277773 33:0.5972532 34:0.71277773 35:0.71277773 36:0.5972532 
-1.0 57:0.85533327 58:0.85533327 59:0.85533327 60:0.71670383 61:0.85533327 
-1.0 1:0.32115242 16:0.17882644 51:0.39816877 96:0.3531171 103:0.47518513 104:0.47518513 105:0.47518513 106:0.47518513 107:0.47518513 
-1.0 15:0.62122667 16:0.4023595 18:0.44793987 172:0.79451346 
-1.0 15:0.82830226 62:1.1945064 173:1.0593513 
-1.0 109:0.5780744 110:0.71670383 174:0.85533327 175:0.85533327 176:0.85533327 
-1.0 177:1.4255555 178:1.0593513 179:1.4255555 
-1.0 18:0.35835192 109:0.5780744 180:0.85533327 181:0.85533327 182:0.85533327 
-1.0 16:0.17882644 18:0.19908439 183:0.47518513 184:0.47518513 185:0.47518513 186:0.47518513 187:0.47518513 188:0.47518513 189:0.39816877 
-1.0 5:0.43944493 54:0.63561076 84:0.71670383 165:0.71670383 178:0.63561076 
-1.0 15:0.41415113 16:0.26823968 172:0.52967566 190:0.71277773 191:0.71277773 192:0.71277773 
-1.0 193:0.85533327 194:0.71670383 195:0.85533327 196:0.85533327 197:0.85533327 
-1.0 198:3.1780539 
-1.0 178:1.0593513 199:1.4255555 200:1.4255555 
-1.0 201:0.71277773 202:0.71277773 203:0.71277773 204:0.71277773 205:0.71277773 206:0.52967566 
-1.0 15:0.31061333 20:0.32988217 31:0.39725673 56:0.44793987 207:0.5345833 208:0.5345833 209:0.5345833 210:0.5345833 
-1.0 44:0.89587975 45:0.89587975 133:0.79451346 211:0.79451346 
-1.0 18:0.2986266 189:0.5972532 212:0.71277773 213:0.71277773 214:0.71277773 215:0.71277773 
-1.0 16:0.10729587 18:0.119450636 211:0.21187027 216:0.2851111 217:0.2851111 218:0.2851111 219:0.2851111 220:0.2851111 221:0.2851111 222:0.2851111 223:0.2851111 224:0.2851111 225:0.2851111 226:0.2851111 227:0.2851111 
-1.0 20:0.8796858 133:1.0593513 206:1.0593513 
-1.0 96:1.0593513 173:1.0593513 206:1.0593513 
-1.0 46:0.89587975 173:0.79451346 198:0.79451346 228:1.0691665 
-1.0 13:0.36129647 16:0.20117974 24:0.36129647 211:0.39725673 229:0.5345833 230:0.5345833 231:0.5345833 232:0.5345833 
-1.0 16:0.53647935 172:1.0593513 198:1.0593513 
-1.0 15:2.4849067 
-1.0 33:1.1945064 233:1.0593513 234:1.4255555 
-1.0 5:0.54930615 37:0.89587975 82:0.79451346 235:1.0691665 
-1.0 233:0.63561076 236:0.85533327 237:0.85533327 238:0.85533327 239:0.85533327 
-1.0 16:0.22991972 18:0.25596565 109:0.41291028 240:0.6109523 241:0.6109523 242:0.6109523 243:0.6109523 
-1.0 5:0.54930615 170:0.89587975 244:1.0691665 245:1.0691665 
-1.0 233:0.79451346 246:1.0691665 247:1.0691665 248:1.0691665 
-1.0 30:0.79451346 249:1.0691665 250:1.0691665 251:1.0691665 
-1.0 13:0.2890372 16:0.16094379 18:0.17917596 31:0.31780538 66:0.35835192 194:0.35835192 252:0.42766663 253:0.35835192 254:0.42766663 255:0.42766663 
-1.0 18:0.19908439 49:0.39816877 253:0.39816877 256:0.47518513 257:0.47518513 258:0.47518513 259:0.47518513 260:0.47518513 261:0.47518513 
